digraph Tree {
node [shape=box, style="filled, rounded", color="black", fontname=helvetica] ;
edge [fontname=helvetica] ;
0 [label=<forecast_3_month &le; 0.5<br/>gini = 0.299<br/>samples = 43112<br/>value = [35217, 7895]<br/>class = No>, fillcolor="#eb9d65"] ;
1 [label=<national_inv &le; -0.5<br/>gini = 0.085<br/>samples = 25805<br/>value = [24654, 1151]<br/>class = No>, fillcolor="#e68742"] ;
0 -> 1 [labeldistance=2.5, labelangle=45, headlabel="True"] ;
17 [label=<sales_9_month &le; 9.5<br/>gini = 0.251<br/>samples = 68<br/>value = [10, 58]<br/>class = Yes>, fillcolor="#5baee9"] ;
1 -> 17 ;
125 [label=<gini = 0.0<br/>samples = 6<br/>value = [6, 0]<br/>class = No>, fillcolor="#e58139"] ;
17 -> 125 ;
126 [label=<gini = 0.121<br/>samples = 62<br/>value = [4, 58]<br/>class = Yes>, fillcolor="#47a4e7"] ;
17 -> 126 ;
18 [label=<forecast_9_month &le; 0.5<br/>gini = 0.081<br/>samples = 25737<br/>value = [24644, 1093]<br/>class = No>, fillcolor="#e68742"] ;
1 -> 18 ;
23 [label=<national_inv &le; 0.5<br/>gini = 0.059<br/>samples = 22194<br/>value = [21513, 681]<br/>class = No>, fillcolor="#e6853f"] ;
18 -> 23 ;
31 [label=<sales_6_month &le; 0.5<br/>gini = 0.264<br/>samples = 1125<br/>value = [949, 176]<br/>class = No>, fillcolor="#ea985e"] ;
23 -> 31 ;
37 [label=<lead_time &le; 4.5<br/>gini = 0.186<br/>samples = 953<br/>value = [854, 99]<br/>class = No>, fillcolor="#e89050"] ;
31 -> 37 ;
129 [label=<in_transit_qty &le; 1.5<br/>gini = 0.36<br/>samples = 212<br/>value = [162, 50]<br/>class = No>, fillcolor="#eda876"] ;
37 -> 129 ;
265 [label=<perf_6_month_avg &le; 0.645<br/>gini = 0.409<br/>samples = 171<br/>value = [122, 49]<br/>class = No>, fillcolor="#efb489"] ;
129 -> 265 ;
267 [label=<perf_6_month_avg &le; 0.195<br/>gini = 0.492<br/>samples = 64<br/>value = [36, 28]<br/>class = No>, fillcolor="#f9e3d3"] ;
265 -> 267 ;
271 [label=<gini = 0.255<br/>samples = 20<br/>value = [17, 3]<br/>class = No>, fillcolor="#ea975c"] ;
267 -> 271 ;
272 [label=<gini = 0.491<br/>samples = 44<br/>value = [19, 25]<br/>class = Yes>, fillcolor="#cfe7f9"] ;
267 -> 272 ;
268 [label=<perf_6_month_avg &le; 0.935<br/>gini = 0.315<br/>samples = 107<br/>value = [86, 21]<br/>class = No>, fillcolor="#eba069"] ;
265 -> 268 ;
269 [label=<gini = 0.153<br/>samples = 72<br/>value = [66, 6]<br/>class = No>, fillcolor="#e78c4b"] ;
268 -> 269 ;
270 [label=<gini = 0.49<br/>samples = 35<br/>value = [20, 15]<br/>class = No>, fillcolor="#f8e0ce"] ;
268 -> 270 ;
266 [label=<gini = 0.048<br/>samples = 41<br/>value = [40, 1]<br/>class = No>, fillcolor="#e6843e"] ;
129 -> 266 ;
130 [label=<lead_time &le; 34.5<br/>gini = 0.124<br/>samples = 741<br/>value = [692, 49]<br/>class = No>, fillcolor="#e78a47"] ;
37 -> 130 ;
133 [label=<gini = 0.112<br/>samples = 736<br/>value = [692, 44]<br/>class = No>, fillcolor="#e78946"] ;
130 -> 133 ;
134 [label=<gini = 0.0<br/>samples = 5<br/>value = [0, 5]<br/>class = Yes>, fillcolor="#399de5"] ;
130 -> 134 ;
38 [label=<deck_risk_Yes &le; 0.5<br/>gini = 0.495<br/>samples = 172<br/>value = [95, 77]<br/>class = No>, fillcolor="#fae7d9"] ;
31 -> 38 ;
63 [label=<sales_9_month &le; 2.5<br/>gini = 0.47<br/>samples = 111<br/>value = [42, 69]<br/>class = Yes>, fillcolor="#b2d9f5"] ;
38 -> 63 ;
213 [label=<gini = 0.459<br/>samples = 28<br/>value = [18, 10]<br/>class = No>, fillcolor="#f3c7a7"] ;
63 -> 213 ;
214 [label=<sales_9_month &le; 185.5<br/>gini = 0.411<br/>samples = 83<br/>value = [24, 59]<br/>class = Yes>, fillcolor="#8ac5f0"] ;
63 -> 214 ;
233 [label=<gini = 0.354<br/>samples = 74<br/>value = [17, 57]<br/>class = Yes>, fillcolor="#74baed"] ;
214 -> 233 ;
234 [label=<gini = 0.346<br/>samples = 9<br/>value = [7, 2]<br/>class = No>, fillcolor="#eca572"] ;
214 -> 234 ;
64 [label=<sales_9_month &le; 220.5<br/>gini = 0.228<br/>samples = 61<br/>value = [53, 8]<br/>class = No>, fillcolor="#e99457"] ;
38 -> 64 ;
243 [label=<gini = 0.158<br/>samples = 58<br/>value = [53, 5]<br/>class = No>, fillcolor="#e78d4c"] ;
64 -> 243 ;
244 [label=<gini = 0.0<br/>samples = 3<br/>value = [0, 3]<br/>class = Yes>, fillcolor="#399de5"] ;
64 -> 244 ;
32 [label=<sales_1_month &le; 0.5<br/>gini = 0.047<br/>samples = 21069<br/>value = [20564, 505]<br/>class = No>, fillcolor="#e6843e"] ;
23 -> 32 ;
83 [label=<gini = 0.026<br/>samples = 15495<br/>value = [15294, 201]<br/>class = No>, fillcolor="#e5833c"] ;
32 -> 83 ;
84 [label=<national_inv &le; 8.5<br/>gini = 0.103<br/>samples = 5574<br/>value = [5270, 304]<br/>class = No>, fillcolor="#e68844"] ;
32 -> 84 ;
85 [label=<lead_time &le; 3.5<br/>gini = 0.35<br/>samples = 738<br/>value = [571, 167]<br/>class = No>, fillcolor="#eda673"] ;
84 -> 85 ;
87 [label=<sales_6_month &le; 8.5<br/>gini = 0.493<br/>samples = 188<br/>value = [105, 83]<br/>class = No>, fillcolor="#fae5d6"] ;
85 -> 87 ;
95 [label=<national_inv &le; 3.5<br/>gini = 0.444<br/>samples = 138<br/>value = [92, 46]<br/>class = No>, fillcolor="#f2c09c"] ;
87 -> 95 ;
127 [label=<min_bank &le; 1.5<br/>gini = 0.495<br/>samples = 58<br/>value = [26, 32]<br/>class = Yes>, fillcolor="#daedfa"] ;
95 -> 127 ;
287 [label=<gini = 0.498<br/>samples = 49<br/>value = [26, 23]<br/>class = No>, fillcolor="#fcf0e8"] ;
127 -> 287 ;
288 [label=<gini = 0.0<br/>samples = 9<br/>value = [0, 9]<br/>class = Yes>, fillcolor="#399de5"] ;
127 -> 288 ;
128 [label=<gini = 0.289<br/>samples = 80<br/>value = [66, 14]<br/>class = No>, fillcolor="#eb9c63"] ;
95 -> 128 ;
96 [label=<gini = 0.385<br/>samples = 50<br/>value = [13, 37]<br/>class = Yes>, fillcolor="#7fbfee"] ;
87 -> 96 ;
88 [label=<sales_1_month &le; 3.5<br/>gini = 0.259<br/>samples = 550<br/>value = [466, 84]<br/>class = No>, fillcolor="#ea985d"] ;
85 -> 88 ;
91 [label=<gini = 0.205<br/>samples = 493<br/>value = [436, 57]<br/>class = No>, fillcolor="#e89153"] ;
88 -> 91 ;
92 [label=<deck_risk_No &le; 0.5<br/>gini = 0.499<br/>samples = 57<br/>value = [30, 27]<br/>class = No>, fillcolor="#fcf2eb"] ;
88 -> 92 ;
139 [label=<gini = 0.111<br/>samples = 17<br/>value = [16, 1]<br/>class = No>, fillcolor="#e78945"] ;
92 -> 139 ;
140 [label=<national_inv &le; 4.5<br/>gini = 0.455<br/>samples = 40<br/>value = [14, 26]<br/>class = Yes>, fillcolor="#a4d2f3"] ;
92 -> 140 ;
165 [label=<gini = 0.252<br/>samples = 27<br/>value = [4, 23]<br/>class = Yes>, fillcolor="#5baeea"] ;
140 -> 165 ;
166 [label=<gini = 0.355<br/>samples = 13<br/>value = [10, 3]<br/>class = No>, fillcolor="#eda774"] ;
140 -> 166 ;
86 [label=<national_inv &le; 22.5<br/>gini = 0.055<br/>samples = 4836<br/>value = [4699, 137]<br/>class = No>, fillcolor="#e6853f"] ;
84 -> 86 ;
193 [label=<sales_3_month &le; 7.5<br/>gini = 0.145<br/>samples = 913<br/>value = [841, 72]<br/>class = No>, fillcolor="#e78c4a"] ;
86 -> 193 ;
195 [label=<gini = 0.073<br/>samples = 742<br/>value = [714, 28]<br/>class = No>, fillcolor="#e68641"] ;
193 -> 195 ;
196 [label=<lead_time &le; 6.0<br/>gini = 0.382<br/>samples = 171<br/>value = [127, 44]<br/>class = No>, fillcolor="#eead7e"] ;
193 -> 196 ;
197 [label=<gini = 0.495<br/>samples = 60<br/>value = [33, 27]<br/>class = No>, fillcolor="#fae8db"] ;
196 -> 197 ;
198 [label=<sales_9_month &le; 11.0<br/>gini = 0.259<br/>samples = 111<br/>value = [94, 17]<br/>class = No>, fillcolor="#ea985d"] ;
196 -> 198 ;
199 [label=<gini = 0.0<br/>samples = 4<br/>value = [0, 4]<br/>class = Yes>, fillcolor="#399de5"] ;
198 -> 199 ;
200 [label=<gini = 0.213<br/>samples = 107<br/>value = [94, 13]<br/>class = No>, fillcolor="#e99254"] ;
198 -> 200 ;
194 [label=<gini = 0.033<br/>samples = 3923<br/>value = [3858, 65]<br/>class = No>, fillcolor="#e5833c"] ;
86 -> 194 ;
24 [label=<national_inv &le; 6.5<br/>gini = 0.206<br/>samples = 3543<br/>value = [3131, 412]<br/>class = No>, fillcolor="#e89253"] ;
18 -> 24 ;
43 [label=<lead_time &le; 3.5<br/>gini = 0.326<br/>samples = 1234<br/>value = [981, 253]<br/>class = No>, fillcolor="#eca16c"] ;
24 -> 43 ;
79 [label=<forecast_6_month &le; 20.5<br/>gini = 0.441<br/>samples = 350<br/>value = [235, 115]<br/>class = No>, fillcolor="#f2bf9a"] ;
43 -> 79 ;
167 [label=<in_transit_qty &le; 4.5<br/>gini = 0.419<br/>samples = 321<br/>value = [225, 96]<br/>class = No>, fillcolor="#f0b78d"] ;
79 -> 167 ;
247 [label=<gini = 0.438<br/>samples = 297<br/>value = [201, 96]<br/>class = No>, fillcolor="#f1bd98"] ;
167 -> 247 ;
248 [label=<gini = 0.0<br/>samples = 24<br/>value = [24, 0]<br/>class = No>, fillcolor="#e58139"] ;
167 -> 248 ;
168 [label=<perf_12_month_avg &le; 0.955<br/>gini = 0.452<br/>samples = 29<br/>value = [10, 19]<br/>class = Yes>, fillcolor="#a1d1f3"] ;
79 -> 168 ;
227 [label=<gini = 0.484<br/>samples = 17<br/>value = [10, 7]<br/>class = No>, fillcolor="#f7d9c4"] ;
168 -> 227 ;
228 [label=<gini = 0.0<br/>samples = 12<br/>value = [0, 12]<br/>class = Yes>, fillcolor="#399de5"] ;
168 -> 228 ;
80 [label=<sales_1_month &le; 1.5<br/>gini = 0.263<br/>samples = 884<br/>value = [746, 138]<br/>class = No>, fillcolor="#ea985e"] ;
43 -> 80 ;
97 [label=<national_inv &le; 1.5<br/>gini = 0.218<br/>samples = 771<br/>value = [675, 96]<br/>class = No>, fillcolor="#e99355"] ;
80 -> 97 ;
177 [label=<sales_6_month &le; 0.5<br/>gini = 0.399<br/>samples = 120<br/>value = [87, 33]<br/>class = No>, fillcolor="#efb184"] ;
97 -> 177 ;
273 [label=<gini = 0.0<br/>samples = 24<br/>value = [24, 0]<br/>class = No>, fillcolor="#e58139"] ;
177 -> 273 ;
274 [label=<gini = 0.451<br/>samples = 96<br/>value = [63, 33]<br/>class = No>, fillcolor="#f3c3a1"] ;
177 -> 274 ;
178 [label=<gini = 0.175<br/>samples = 651<br/>value = [588, 63]<br/>class = No>, fillcolor="#e88e4e"] ;
97 -> 178 ;
98 [label=<in_transit_qty &le; 3.0<br/>gini = 0.467<br/>samples = 113<br/>value = [71, 42]<br/>class = No>, fillcolor="#f4ccae"] ;
80 -> 98 ;
207 [label=<national_inv &le; 3.5<br/>gini = 0.492<br/>samples = 96<br/>value = [54, 42]<br/>class = No>, fillcolor="#f9e3d3"] ;
98 -> 207 ;
211 [label=<gini = 0.437<br/>samples = 31<br/>value = [10, 21]<br/>class = Yes>, fillcolor="#97ccf1"] ;
207 -> 211 ;
212 [label=<gini = 0.437<br/>samples = 65<br/>value = [44, 21]<br/>class = No>, fillcolor="#f1bd98"] ;
207 -> 212 ;
208 [label=<gini = 0.0<br/>samples = 17<br/>value = [17, 0]<br/>class = No>, fillcolor="#e58139"] ;
98 -> 208 ;
44 [label=<national_inv &le; 42.5<br/>gini = 0.128<br/>samples = 2309<br/>value = [2150, 159]<br/>class = No>, fillcolor="#e78a48"] ;
24 -> 44 ;
141 [label=<sales_1_month &le; 8.5<br/>gini = 0.189<br/>samples = 1295<br/>value = [1158, 137]<br/>class = No>, fillcolor="#e89050"] ;
44 -> 141 ;
143 [label=<gini = 0.158<br/>samples = 1234<br/>value = [1127, 107]<br/>class = No>, fillcolor="#e78d4c"] ;
141 -> 143 ;
144 [label=<gini = 0.5<br/>samples = 61<br/>value = [31, 30]<br/>class = No>, fillcolor="#fefbf9"] ;
141 -> 144 ;
142 [label=<gini = 0.042<br/>samples = 1014<br/>value = [992, 22]<br/>class = No>, fillcolor="#e6843d"] ;
44 -> 142 ;
2 [label=<national_inv &le; 9.5<br/>gini = 0.476<br/>samples = 17307<br/>value = [10563, 6744]<br/>class = No>, fillcolor="#f6d1b7"] ;
0 -> 2 [labeldistance=2.5, labelangle=-45, headlabel="False"] ;
3 [label=<sales_1_month &le; 1.5<br/>gini = 0.482<br/>samples = 9679<br/>value = [3930, 5749]<br/>class = Yes>, fillcolor="#c0e0f7"] ;
2 -> 3 ;
5 [label=<national_inv &le; 1.5<br/>gini = 0.498<br/>samples = 5270<br/>value = [2818, 2452]<br/>class = No>, fillcolor="#fcefe5"] ;
3 -> 5 ;
7 [label=<sales_6_month &le; 2.5<br/>gini = 0.486<br/>samples = 3580<br/>value = [1491, 2089]<br/>class = Yes>, fillcolor="#c6e3f8"] ;
5 -> 7 ;
15 [label=<national_inv &le; 0.5<br/>gini = 0.5<br/>samples = 2490<br/>value = [1231, 1259]<br/>class = Yes>, fillcolor="#fbfdfe"] ;
7 -> 15 ;
21 [label=<sales_9_month &le; 0.5<br/>gini = 0.496<br/>samples = 2200<br/>value = [1005, 1195]<br/>class = Yes>, fillcolor="#e0effb"] ;
15 -> 21 ;
27 [label=<forecast_6_month &le; 15.5<br/>gini = 0.5<br/>samples = 1705<br/>value = [870, 835]<br/>class = No>, fillcolor="#fefaf7"] ;
21 -> 27 ;
29 [label=<lead_time &le; 2.5<br/>gini = 0.481<br/>samples = 1055<br/>value = [630, 425]<br/>class = No>, fillcolor="#f7d6bf"] ;
27 -> 29 ;
61 [label=<perf_12_month_avg &le; 0.385<br/>gini = 0.5<br/>samples = 601<br/>value = [309, 292]<br/>class = No>, fillcolor="#fef8f4"] ;
29 -> 61 ;
89 [label=<perf_12_month_avg &le; -49.5<br/>gini = 0.472<br/>samples = 239<br/>value = [91, 148]<br/>class = Yes>, fillcolor="#b3d9f5"] ;
61 -> 89 ;
101 [label=<gini = 0.0<br/>samples = 14<br/>value = [14, 0]<br/>class = No>, fillcolor="#e58139"] ;
89 -> 101 ;
102 [label=<ppap_risk_No &le; 0.5<br/>gini = 0.45<br/>samples = 225<br/>value = [77, 148]<br/>class = Yes>, fillcolor="#a0d0f3"] ;
89 -> 102 ;
257 [label=<forecast_6_month &le; 2.5<br/>gini = 0.382<br/>samples = 132<br/>value = [34, 98]<br/>class = Yes>, fillcolor="#7ebfee"] ;
102 -> 257 ;
259 [label=<gini = 0.245<br/>samples = 7<br/>value = [6, 1]<br/>class = No>, fillcolor="#e9965a"] ;
257 -> 259 ;
260 [label=<gini = 0.348<br/>samples = 125<br/>value = [28, 97]<br/>class = Yes>, fillcolor="#72b9ed"] ;
257 -> 260 ;
258 [label=<gini = 0.497<br/>samples = 93<br/>value = [43, 50]<br/>class = Yes>, fillcolor="#e3f1fb"] ;
102 -> 258 ;
90 [label=<perf_12_month_avg &le; 0.425<br/>gini = 0.479<br/>samples = 362<br/>value = [218, 144]<br/>class = No>, fillcolor="#f6d4bc"] ;
61 -> 90 ;
289 [label=<gini = 0.0<br/>samples = 13<br/>value = [13, 0]<br/>class = No>, fillcolor="#e58139"] ;
90 -> 289 ;
290 [label=<gini = 0.485<br/>samples = 349<br/>value = [205, 144]<br/>class = No>, fillcolor="#f7dac4"] ;
90 -> 290 ;
62 [label=<forecast_6_month &le; 10.5<br/>gini = 0.414<br/>samples = 454<br/>value = [321, 133]<br/>class = No>, fillcolor="#f0b58b"] ;
29 -> 62 ;
159 [label=<perf_12_month_avg &le; 0.06<br/>gini = 0.384<br/>samples = 397<br/>value = [294, 103]<br/>class = No>, fillcolor="#eead7e"] ;
62 -> 159 ;
179 [label=<gini = 0.48<br/>samples = 25<br/>value = [10, 15]<br/>class = Yes>, fillcolor="#bddef6"] ;
159 -> 179 ;
180 [label=<gini = 0.361<br/>samples = 372<br/>value = [284, 88]<br/>class = No>, fillcolor="#eda876"] ;
159 -> 180 ;
160 [label=<gini = 0.499<br/>samples = 57<br/>value = [27, 30]<br/>class = Yes>, fillcolor="#ebf5fc"] ;
62 -> 160 ;
30 [label=<min_bank &le; 12.5<br/>gini = 0.466<br/>samples = 650<br/>value = [240, 410]<br/>class = Yes>, fillcolor="#add6f4"] ;
27 -> 30 ;
99 [label=<perf_12_month_avg &le; 0.825<br/>gini = 0.485<br/>samples = 532<br/>value = [220, 312]<br/>class = Yes>, fillcolor="#c5e2f7"] ;
30 -> 99 ;
221 [label=<in_transit_qty &le; 5.0<br/>gini = 0.462<br/>samples = 340<br/>value = [123, 217]<br/>class = Yes>, fillcolor="#a9d5f4"] ;
99 -> 221 ;
223 [label=<gini = 0.45<br/>samples = 330<br/>value = [113, 217]<br/>class = Yes>, fillcolor="#a0d0f3"] ;
221 -> 223 ;
224 [label=<gini = 0.0<br/>samples = 10<br/>value = [10, 0]<br/>class = No>, fillcolor="#e58139"] ;
221 -> 224 ;
222 [label=<forecast_6_month &le; 203.0<br/>gini = 0.5<br/>samples = 192<br/>value = [97, 95]<br/>class = No>, fillcolor="#fefcfb"] ;
99 -> 222 ;
239 [label=<forecast_3_month &le; 66.5<br/>gini = 0.494<br/>samples = 158<br/>value = [88, 70]<br/>class = No>, fillcolor="#fae5d7"] ;
222 -> 239 ;
241 [label=<forecast_3_month &le; 12.5<br/>gini = 0.499<br/>samples = 124<br/>value = [60, 64]<br/>class = Yes>, fillcolor="#f3f9fd"] ;
239 -> 241 ;
261 [label=<perf_6_month_avg &le; 0.83<br/>gini = 0.384<br/>samples = 27<br/>value = [20, 7]<br/>class = No>, fillcolor="#eead7e"] ;
241 -> 261 ;
263 [label=<gini = 0.245<br/>samples = 7<br/>value = [1, 6]<br/>class = Yes>, fillcolor="#5aade9"] ;
261 -> 263 ;
264 [label=<gini = 0.095<br/>samples = 20<br/>value = [19, 1]<br/>class = No>, fillcolor="#e68843"] ;
261 -> 264 ;
262 [label=<gini = 0.485<br/>samples = 97<br/>value = [40, 57]<br/>class = Yes>, fillcolor="#c4e2f7"] ;
241 -> 262 ;
242 [label=<gini = 0.291<br/>samples = 34<br/>value = [28, 6]<br/>class = No>, fillcolor="#eb9c63"] ;
239 -> 242 ;
240 [label=<gini = 0.389<br/>samples = 34<br/>value = [9, 25]<br/>class = Yes>, fillcolor="#80c0ee"] ;
222 -> 240 ;
100 [label=<forecast_6_month &le; 50634.0<br/>gini = 0.282<br/>samples = 118<br/>value = [20, 98]<br/>class = Yes>, fillcolor="#61b1ea"] ;
30 -> 100 ;
201 [label=<gini = 0.241<br/>samples = 114<br/>value = [16, 98]<br/>class = Yes>, fillcolor="#59ade9"] ;
100 -> 201 ;
202 [label=<gini = 0.0<br/>samples = 4<br/>value = [4, 0]<br/>class = No>, fillcolor="#e58139"] ;
100 -> 202 ;
28 [label=<forecast_9_month &le; 22.5<br/>gini = 0.397<br/>samples = 495<br/>value = [135, 360]<br/>class = Yes>, fillcolor="#83c2ef"] ;
21 -> 28 ;
151 [label=<gini = 0.432<br/>samples = 396<br/>value = [125, 271]<br/>class = Yes>, fillcolor="#94caf1"] ;
28 -> 151 ;
152 [label=<gini = 0.182<br/>samples = 99<br/>value = [10, 89]<br/>class = Yes>, fillcolor="#4fa8e8"] ;
28 -> 152 ;
22 [label=<perf_6_month_avg &le; 0.155<br/>gini = 0.344<br/>samples = 290<br/>value = [226, 64]<br/>class = No>, fillcolor="#eca571"] ;
15 -> 22 ;
93 [label=<gini = 0.426<br/>samples = 26<br/>value = [8, 18]<br/>class = Yes>, fillcolor="#91c9f1"] ;
22 -> 93 ;
94 [label=<perf_12_month_avg &le; 0.825<br/>gini = 0.288<br/>samples = 264<br/>value = [218, 46]<br/>class = No>, fillcolor="#ea9c63"] ;
22 -> 94 ;
149 [label=<gini = 0.159<br/>samples = 172<br/>value = [157, 15]<br/>class = No>, fillcolor="#e78d4c"] ;
94 -> 149 ;
150 [label=<sales_3_month &le; 0.5<br/>gini = 0.447<br/>samples = 92<br/>value = [61, 31]<br/>class = No>, fillcolor="#f2c19e"] ;
94 -> 150 ;
245 [label=<gini = 0.0<br/>samples = 17<br/>value = [17, 0]<br/>class = No>, fillcolor="#e58139"] ;
150 -> 245 ;
246 [label=<perf_6_month_avg &le; 0.845<br/>gini = 0.485<br/>samples = 75<br/>value = [44, 31]<br/>class = No>, fillcolor="#f7dac4"] ;
150 -> 246 ;
295 [label=<gini = 0.298<br/>samples = 11<br/>value = [2, 9]<br/>class = Yes>, fillcolor="#65b3eb"] ;
246 -> 295 ;
296 [label=<gini = 0.451<br/>samples = 64<br/>value = [42, 22]<br/>class = No>, fillcolor="#f3c3a1"] ;
246 -> 296 ;
16 [label=<in_transit_qty &le; 0.5<br/>gini = 0.363<br/>samples = 1090<br/>value = [260, 830]<br/>class = Yes>, fillcolor="#77bced"] ;
7 -> 16 ;
41 [label=<national_inv &le; 0.5<br/>gini = 0.317<br/>samples = 978<br/>value = [193, 785]<br/>class = Yes>, fillcolor="#6ab5eb"] ;
16 -> 41 ;
75 [label=<gini = 0.236<br/>samples = 672<br/>value = [92, 580]<br/>class = Yes>, fillcolor="#58ade9"] ;
41 -> 75 ;
76 [label=<perf_12_month_avg &le; 0.665<br/>gini = 0.442<br/>samples = 306<br/>value = [101, 205]<br/>class = Yes>, fillcolor="#9bcdf2"] ;
41 -> 76 ;
147 [label=<forecast_6_month &le; 7.5<br/>gini = 0.282<br/>samples = 100<br/>value = [17, 83]<br/>class = Yes>, fillcolor="#62b1ea"] ;
76 -> 147 ;
249 [label=<gini = 0.449<br/>samples = 44<br/>value = [15, 29]<br/>class = Yes>, fillcolor="#9fd0f2"] ;
147 -> 249 ;
250 [label=<gini = 0.069<br/>samples = 56<br/>value = [2, 54]<br/>class = Yes>, fillcolor="#40a1e6"] ;
147 -> 250 ;
148 [label=<sales_1_month &le; 0.5<br/>gini = 0.483<br/>samples = 206<br/>value = [84, 122]<br/>class = Yes>, fillcolor="#c1e0f7"] ;
76 -> 148 ;
297 [label=<gini = 0.499<br/>samples = 90<br/>value = [47, 43]<br/>class = No>, fillcolor="#fdf4ee"] ;
148 -> 297 ;
298 [label=<gini = 0.434<br/>samples = 116<br/>value = [37, 79]<br/>class = Yes>, fillcolor="#96cbf1"] ;
148 -> 298 ;
42 [label=<lead_time &le; 2.5<br/>gini = 0.481<br/>samples = 112<br/>value = [67, 45]<br/>class = No>, fillcolor="#f6d6be"] ;
16 -> 42 ;
169 [label=<gini = 0.363<br/>samples = 21<br/>value = [5, 16]<br/>class = Yes>, fillcolor="#77bced"] ;
42 -> 169 ;
170 [label=<gini = 0.434<br/>samples = 91<br/>value = [62, 29]<br/>class = No>, fillcolor="#f1bc96"] ;
42 -> 170 ;
8 [label=<sales_3_month &le; 1.5<br/>gini = 0.337<br/>samples = 1690<br/>value = [1327, 363]<br/>class = No>, fillcolor="#eca36f"] ;
5 -> 8 ;
35 [label=<sales_6_month &le; 0.5<br/>gini = 0.173<br/>samples = 733<br/>value = [663, 70]<br/>class = No>, fillcolor="#e88e4e"] ;
8 -> 35 ;
173 [label=<gini = 0.076<br/>samples = 432<br/>value = [415, 17]<br/>class = No>, fillcolor="#e68641"] ;
35 -> 173 ;
174 [label=<lead_time &le; 3.5<br/>gini = 0.29<br/>samples = 301<br/>value = [248, 53]<br/>class = No>, fillcolor="#eb9c63"] ;
35 -> 174 ;
175 [label=<gini = 0.44<br/>samples = 98<br/>value = [66, 32]<br/>class = No>, fillcolor="#f2be99"] ;
174 -> 175 ;
176 [label=<gini = 0.185<br/>samples = 203<br/>value = [182, 21]<br/>class = No>, fillcolor="#e89050"] ;
174 -> 176 ;
36 [label=<national_inv &le; 4.5<br/>gini = 0.425<br/>samples = 957<br/>value = [664, 293]<br/>class = No>, fillcolor="#f0b990"] ;
8 -> 36 ;
55 [label=<sales_9_month &le; 15.5<br/>gini = 0.475<br/>samples = 606<br/>value = [371, 235]<br/>class = No>, fillcolor="#f5d1b6"] ;
36 -> 55 ;
65 [label=<in_transit_qty &le; 0.5<br/>gini = 0.436<br/>samples = 470<br/>value = [319, 151]<br/>class = No>, fillcolor="#f1bd97"] ;
55 -> 65 ;
171 [label=<lead_time &le; 8.5<br/>gini = 0.458<br/>samples = 406<br/>value = [262, 144]<br/>class = No>, fillcolor="#f3c6a6"] ;
65 -> 171 ;
215 [label=<perf_6_month_avg &le; 0.19<br/>gini = 0.478<br/>samples = 324<br/>value = [196, 128]<br/>class = No>, fillcolor="#f6d3ba"] ;
171 -> 215 ;
293 [label=<gini = 0.375<br/>samples = 16<br/>value = [4, 12]<br/>class = Yes>, fillcolor="#7bbeee"] ;
215 -> 293 ;
294 [label=<gini = 0.47<br/>samples = 308<br/>value = [192, 116]<br/>class = No>, fillcolor="#f5cdb1"] ;
215 -> 294 ;
216 [label=<forecast_9_month &le; 18.0<br/>gini = 0.314<br/>samples = 82<br/>value = [66, 16]<br/>class = No>, fillcolor="#eba069"] ;
171 -> 216 ;
275 [label=<gini = 0.236<br/>samples = 73<br/>value = [63, 10]<br/>class = No>, fillcolor="#e99558"] ;
216 -> 275 ;
276 [label=<gini = 0.444<br/>samples = 9<br/>value = [3, 6]<br/>class = Yes>, fillcolor="#9ccef2"] ;
216 -> 276 ;
172 [label=<gini = 0.195<br/>samples = 64<br/>value = [57, 7]<br/>class = No>, fillcolor="#e89051"] ;
65 -> 172 ;
66 [label=<in_transit_qty &le; 1.5<br/>gini = 0.472<br/>samples = 136<br/>value = [52, 84]<br/>class = Yes>, fillcolor="#b4daf5"] ;
55 -> 66 ;
209 [label=<forecast_6_month &le; 10.5<br/>gini = 0.448<br/>samples = 124<br/>value = [42, 82]<br/>class = Yes>, fillcolor="#9ecff2"] ;
66 -> 209 ;
285 [label=<gini = 0.492<br/>samples = 32<br/>value = [18, 14]<br/>class = No>, fillcolor="#f9e3d3"] ;
209 -> 285 ;
286 [label=<gini = 0.386<br/>samples = 92<br/>value = [24, 68]<br/>class = Yes>, fillcolor="#7fc0ee"] ;
209 -> 286 ;
210 [label=<gini = 0.278<br/>samples = 12<br/>value = [10, 2]<br/>class = No>, fillcolor="#ea9a61"] ;
66 -> 210 ;
56 [label=<sales_3_month &le; 15.0<br/>gini = 0.276<br/>samples = 351<br/>value = [293, 58]<br/>class = No>, fillcolor="#ea9a60"] ;
36 -> 56 ;
123 [label=<lead_time &le; 2.5<br/>gini = 0.247<br/>samples = 340<br/>value = [291, 49]<br/>class = No>, fillcolor="#e9965a"] ;
56 -> 123 ;
235 [label=<gini = 0.41<br/>samples = 87<br/>value = [62, 25]<br/>class = No>, fillcolor="#efb489"] ;
123 -> 235 ;
236 [label=<perf_12_month_avg &le; 0.215<br/>gini = 0.172<br/>samples = 253<br/>value = [229, 24]<br/>class = No>, fillcolor="#e88e4e"] ;
123 -> 236 ;
237 [label=<gini = 0.497<br/>samples = 13<br/>value = [6, 7]<br/>class = Yes>, fillcolor="#e3f1fb"] ;
236 -> 237 ;
238 [label=<gini = 0.132<br/>samples = 240<br/>value = [223, 17]<br/>class = No>, fillcolor="#e78b48"] ;
236 -> 238 ;
124 [label=<gini = 0.298<br/>samples = 11<br/>value = [2, 9]<br/>class = Yes>, fillcolor="#65b3eb"] ;
56 -> 124 ;
6 [label=<national_inv &le; 2.5<br/>gini = 0.377<br/>samples = 4409<br/>value = [1112, 3297]<br/>class = Yes>, fillcolor="#7cbeee"] ;
3 -> 6 ;
13 [label=<in_transit_qty &le; 0.5<br/>gini = 0.252<br/>samples = 2527<br/>value = [374, 2153]<br/>class = Yes>, fillcolor="#5baeea"] ;
6 -> 13 ;
33 [label=<sales_3_month &le; 8.5<br/>gini = 0.195<br/>samples = 2096<br/>value = [229, 1867]<br/>class = Yes>, fillcolor="#51a9e8"] ;
13 -> 33 ;
109 [label=<national_inv &le; 0.5<br/>gini = 0.285<br/>samples = 831<br/>value = [143, 688]<br/>class = Yes>, fillcolor="#62b1ea"] ;
33 -> 109 ;
137 [label=<gini = 0.193<br/>samples = 462<br/>value = [50, 412]<br/>class = Yes>, fillcolor="#51a9e8"] ;
109 -> 137 ;
138 [label=<gini = 0.377<br/>samples = 369<br/>value = [93, 276]<br/>class = Yes>, fillcolor="#7cbeee"] ;
109 -> 138 ;
110 [label=<gini = 0.127<br/>samples = 1265<br/>value = [86, 1179]<br/>class = Yes>, fillcolor="#47a4e7"] ;
33 -> 110 ;
34 [label=<local_bo_qty &le; 0.5<br/>gini = 0.446<br/>samples = 431<br/>value = [145, 286]<br/>class = Yes>, fillcolor="#9dcff2"] ;
13 -> 34 ;
111 [label=<in_transit_qty &le; 6.5<br/>gini = 0.494<br/>samples = 220<br/>value = [98, 122]<br/>class = Yes>, fillcolor="#d8ecfa"] ;
34 -> 111 ;
189 [label=<forecast_9_month &le; 47.0<br/>gini = 0.472<br/>samples = 170<br/>value = [65, 105]<br/>class = Yes>, fillcolor="#b4daf5"] ;
111 -> 189 ;
191 [label=<gini = 0.499<br/>samples = 125<br/>value = [60, 65]<br/>class = Yes>, fillcolor="#f0f7fd"] ;
189 -> 191 ;
192 [label=<gini = 0.198<br/>samples = 45<br/>value = [5, 40]<br/>class = Yes>, fillcolor="#52a9e8"] ;
189 -> 192 ;
190 [label=<gini = 0.449<br/>samples = 50<br/>value = [33, 17]<br/>class = No>, fillcolor="#f2c29f"] ;
111 -> 190 ;
112 [label=<in_transit_qty &le; 58.5<br/>gini = 0.346<br/>samples = 211<br/>value = [47, 164]<br/>class = Yes>, fillcolor="#72b9ec"] ;
34 -> 112 ;
135 [label=<gini = 0.25<br/>samples = 164<br/>value = [24, 140]<br/>class = Yes>, fillcolor="#5baee9"] ;
112 -> 135 ;
136 [label=<gini = 0.5<br/>samples = 47<br/>value = [23, 24]<br/>class = Yes>, fillcolor="#f7fbfe"] ;
112 -> 136 ;
14 [label=<sales_1_month &le; 4.5<br/>gini = 0.477<br/>samples = 1882<br/>value = [738, 1144]<br/>class = Yes>, fillcolor="#b9dcf6"] ;
6 -> 14 ;
19 [label=<national_inv &le; 5.5<br/>gini = 0.496<br/>samples = 818<br/>value = [446, 372]<br/>class = No>, fillcolor="#fbeade"] ;
14 -> 19 ;
49 [label=<in_transit_qty &le; 0.5<br/>gini = 0.493<br/>samples = 489<br/>value = [215, 274]<br/>class = Yes>, fillcolor="#d4eaf9"] ;
19 -> 49 ;
69 [label=<sales_9_month &le; 22.5<br/>gini = 0.474<br/>samples = 413<br/>value = [159, 254]<br/>class = Yes>, fillcolor="#b5daf5"] ;
49 -> 69 ;
155 [label=<gini = 0.498<br/>samples = 228<br/>value = [107, 121]<br/>class = Yes>, fillcolor="#e8f4fc"] ;
69 -> 155 ;
156 [label=<gini = 0.404<br/>samples = 185<br/>value = [52, 133]<br/>class = Yes>, fillcolor="#86c3ef"] ;
69 -> 156 ;
70 [label=<sales_9_month &le; 32.5<br/>gini = 0.388<br/>samples = 76<br/>value = [56, 20]<br/>class = No>, fillcolor="#eeae80"] ;
49 -> 70 ;
203 [label=<gini = 0.262<br/>samples = 58<br/>value = [49, 9]<br/>class = No>, fillcolor="#ea985d"] ;
70 -> 203 ;
204 [label=<gini = 0.475<br/>samples = 18<br/>value = [7, 11]<br/>class = Yes>, fillcolor="#b7dbf6"] ;
70 -> 204 ;
50 [label=<sales_9_month &le; 27.5<br/>gini = 0.418<br/>samples = 329<br/>value = [231, 98]<br/>class = No>, fillcolor="#f0b68d"] ;
19 -> 50 ;
107 [label=<gini = 0.278<br/>samples = 162<br/>value = [135, 27]<br/>class = No>, fillcolor="#ea9a61"] ;
50 -> 107 ;
108 [label=<gini = 0.489<br/>samples = 167<br/>value = [96, 71]<br/>class = No>, fillcolor="#f8decb"] ;
50 -> 108 ;
20 [label=<in_transit_qty &le; 1.5<br/>gini = 0.398<br/>samples = 1064<br/>value = [292, 772]<br/>class = Yes>, fillcolor="#84c2ef"] ;
14 -> 20 ;
51 [label=<perf_12_month_avg &le; 0.745<br/>gini = 0.342<br/>samples = 849<br/>value = [186, 663]<br/>class = Yes>, fillcolor="#71b8ec"] ;
20 -> 51 ;
113 [label=<gini = 0.208<br/>samples = 313<br/>value = [37, 276]<br/>class = Yes>, fillcolor="#54aae8"] ;
51 -> 113 ;
114 [label=<sales_1_month &le; 6.5<br/>gini = 0.401<br/>samples = 536<br/>value = [149, 387]<br/>class = Yes>, fillcolor="#85c3ef"] ;
51 -> 114 ;
131 [label=<gini = 0.483<br/>samples = 181<br/>value = [74, 107]<br/>class = Yes>, fillcolor="#c2e1f7"] ;
114 -> 131 ;
132 [label=<gini = 0.333<br/>samples = 355<br/>value = [75, 280]<br/>class = Yes>, fillcolor="#6eb7ec"] ;
114 -> 132 ;
52 [label=<sales_9_month &le; 113.5<br/>gini = 0.5<br/>samples = 215<br/>value = [106, 109]<br/>class = Yes>, fillcolor="#fafcfe"] ;
20 -> 52 ;
53 [label=<in_transit_qty &le; 12.5<br/>gini = 0.443<br/>samples = 145<br/>value = [97, 48]<br/>class = No>, fillcolor="#f2bf9b"] ;
52 -> 53 ;
225 [label=<gini = 0.479<br/>samples = 116<br/>value = [70, 46]<br/>class = No>, fillcolor="#f6d4bb"] ;
53 -> 225 ;
226 [label=<gini = 0.128<br/>samples = 29<br/>value = [27, 2]<br/>class = No>, fillcolor="#e78a48"] ;
53 -> 226 ;
54 [label=<gini = 0.224<br/>samples = 70<br/>value = [9, 61]<br/>class = Yes>, fillcolor="#56abe9"] ;
52 -> 54 ;
4 [label=<national_inv &le; 35.5<br/>gini = 0.227<br/>samples = 7628<br/>value = [6633, 995]<br/>class = No>, fillcolor="#e99457"] ;
2 -> 4 ;
9 [label=<forecast_3_month &le; 72.5<br/>gini = 0.395<br/>samples = 2307<br/>value = [1683, 624]<br/>class = No>, fillcolor="#efb082"] ;
4 -> 9 ;
11 [label=<sales_1_month &le; 5.5<br/>gini = 0.298<br/>samples = 1881<br/>value = [1538, 343]<br/>class = No>, fillcolor="#eb9d65"] ;
9 -> 11 ;
45 [label=<lead_time &le; 3.5<br/>gini = 0.181<br/>samples = 1002<br/>value = [901, 101]<br/>class = No>, fillcolor="#e88f4f"] ;
11 -> 45 ;
205 [label=<gini = 0.302<br/>samples = 280<br/>value = [228, 52]<br/>class = No>, fillcolor="#eb9e66"] ;
45 -> 205 ;
206 [label=<gini = 0.127<br/>samples = 722<br/>value = [673, 49]<br/>class = No>, fillcolor="#e78a47"] ;
45 -> 206 ;
46 [label=<national_inv &le; 13.5<br/>gini = 0.399<br/>samples = 879<br/>value = [637, 242]<br/>class = No>, fillcolor="#efb184"] ;
11 -> 46 ;
47 [label=<perf_12_month_avg &le; 0.36<br/>gini = 0.499<br/>samples = 244<br/>value = [127, 117]<br/>class = No>, fillcolor="#fdf5ef"] ;
46 -> 47 ;
145 [label=<gini = 0.26<br/>samples = 26<br/>value = [4, 22]<br/>class = Yes>, fillcolor="#5dafea"] ;
47 -> 145 ;
146 [label=<gini = 0.492<br/>samples = 218<br/>value = [123, 95]<br/>class = No>, fillcolor="#f9e2d2"] ;
47 -> 146 ;
48 [label=<sales_1_month &le; 15.5<br/>gini = 0.316<br/>samples = 635<br/>value = [510, 125]<br/>class = No>, fillcolor="#eba06a"] ;
46 -> 48 ;
103 [label=<perf_6_month_avg &le; 0.655<br/>gini = 0.246<br/>samples = 481<br/>value = [412, 69]<br/>class = No>, fillcolor="#e9965a"] ;
48 -> 103 ;
229 [label=<forecast_9_month &le; 79.5<br/>gini = 0.418<br/>samples = 84<br/>value = [59, 25]<br/>class = No>, fillcolor="#f0b68d"] ;
103 -> 229 ;
277 [label=<sales_3_month &le; 39.0<br/>gini = 0.24<br/>samples = 43<br/>value = [37, 6]<br/>class = No>, fillcolor="#e99559"] ;
229 -> 277 ;
279 [label=<gini = 0.1<br/>samples = 38<br/>value = [36, 2]<br/>class = No>, fillcolor="#e68844"] ;
277 -> 279 ;
280 [label=<gini = 0.32<br/>samples = 5<br/>value = [1, 4]<br/>class = Yes>, fillcolor="#6ab6ec"] ;
277 -> 280 ;
278 [label=<sales_6_month &le; 37.5<br/>gini = 0.497<br/>samples = 41<br/>value = [22, 19]<br/>class = No>, fillcolor="#fbeee4"] ;
229 -> 278 ;
281 [label=<gini = 0.0<br/>samples = 7<br/>value = [0, 7]<br/>class = Yes>, fillcolor="#399de5"] ;
278 -> 281 ;
282 [label=<gini = 0.457<br/>samples = 34<br/>value = [22, 12]<br/>class = No>, fillcolor="#f3c6a5"] ;
278 -> 282 ;
230 [label=<sales_6_month &le; 13.0<br/>gini = 0.197<br/>samples = 397<br/>value = [353, 44]<br/>class = No>, fillcolor="#e89152"] ;
103 -> 230 ;
231 [label=<gini = 0.278<br/>samples = 6<br/>value = [1, 5]<br/>class = Yes>, fillcolor="#61b1ea"] ;
230 -> 231 ;
232 [label=<gini = 0.18<br/>samples = 391<br/>value = [352, 39]<br/>class = No>, fillcolor="#e88f4f"] ;
230 -> 232 ;
104 [label=<in_transit_qty &le; 0.5<br/>gini = 0.463<br/>samples = 154<br/>value = [98, 56]<br/>class = No>, fillcolor="#f4c9aa"] ;
48 -> 104 ;
105 [label=<gini = 0.494<br/>samples = 81<br/>value = [36, 45]<br/>class = Yes>, fillcolor="#d7ebfa"] ;
104 -> 105 ;
106 [label=<gini = 0.256<br/>samples = 73<br/>value = [62, 11]<br/>class = No>, fillcolor="#ea975c"] ;
104 -> 106 ;
12 [label=<sales_1_month &le; 4.5<br/>gini = 0.449<br/>samples = 426<br/>value = [145, 281]<br/>class = Yes>, fillcolor="#9fd0f2"] ;
9 -> 12 ;
39 [label=<gini = 0.252<br/>samples = 54<br/>value = [46, 8]<br/>class = No>, fillcolor="#ea975b"] ;
12 -> 39 ;
40 [label=<in_transit_qty &le; 10.5<br/>gini = 0.391<br/>samples = 372<br/>value = [99, 273]<br/>class = Yes>, fillcolor="#81c1ee"] ;
12 -> 40 ;
77 [label=<forecast_3_month &le; 272.0<br/>gini = 0.297<br/>samples = 276<br/>value = [50, 226]<br/>class = Yes>, fillcolor="#65b3eb"] ;
40 -> 77 ;
251 [label=<national_inv &le; 24.5<br/>gini = 0.36<br/>samples = 204<br/>value = [48, 156]<br/>class = Yes>, fillcolor="#76bbed"] ;
77 -> 251 ;
253 [label=<local_bo_qty &le; 7.5<br/>gini = 0.279<br/>samples = 149<br/>value = [25, 124]<br/>class = Yes>, fillcolor="#61b1ea"] ;
251 -> 253 ;
291 [label=<gini = 0.256<br/>samples = 146<br/>value = [22, 124]<br/>class = Yes>, fillcolor="#5caeea"] ;
253 -> 291 ;
292 [label=<gini = 0.0<br/>samples = 3<br/>value = [3, 0]<br/>class = No>, fillcolor="#e58139"] ;
253 -> 292 ;
254 [label=<sales_6_month &le; 148.0<br/>gini = 0.487<br/>samples = 55<br/>value = [23, 32]<br/>class = Yes>, fillcolor="#c7e3f8"] ;
251 -> 254 ;
255 [label=<gini = 0.42<br/>samples = 20<br/>value = [14, 6]<br/>class = No>, fillcolor="#f0b78e"] ;
254 -> 255 ;
256 [label=<gini = 0.382<br/>samples = 35<br/>value = [9, 26]<br/>class = Yes>, fillcolor="#7ebfee"] ;
254 -> 256 ;
252 [label=<gini = 0.054<br/>samples = 72<br/>value = [2, 70]<br/>class = Yes>, fillcolor="#3fa0e6"] ;
77 -> 252 ;
78 [label=<sales_9_month &le; 326.0<br/>gini = 0.5<br/>samples = 96<br/>value = [49, 47]<br/>class = No>, fillcolor="#fefaf7"] ;
40 -> 78 ;
81 [label=<gini = 0.32<br/>samples = 45<br/>value = [36, 9]<br/>class = No>, fillcolor="#eca06a"] ;
78 -> 81 ;
82 [label=<perf_6_month_avg &le; 0.935<br/>gini = 0.38<br/>samples = 51<br/>value = [13, 38]<br/>class = Yes>, fillcolor="#7dbfee"] ;
78 -> 82 ;
181 [label=<gini = 0.245<br/>samples = 42<br/>value = [6, 36]<br/>class = Yes>, fillcolor="#5aade9"] ;
82 -> 181 ;
182 [label=<gini = 0.346<br/>samples = 9<br/>value = [7, 2]<br/>class = No>, fillcolor="#eca572"] ;
82 -> 182 ;
10 [label=<local_bo_qty &le; 1.5<br/>gini = 0.13<br/>samples = 5321<br/>value = [4950, 371]<br/>class = No>, fillcolor="#e78a48"] ;
4 -> 10 ;
25 [label=<pieces_past_due &le; 6.5<br/>gini = 0.105<br/>samples = 5084<br/>value = [4800, 284]<br/>class = No>, fillcolor="#e78845"] ;
10 -> 25 ;
59 [label=<perf_6_month_avg &le; 0.705<br/>gini = 0.087<br/>samples = 4809<br/>value = [4591, 218]<br/>class = No>, fillcolor="#e68742"] ;
25 -> 59 ;
115 [label=<forecast_3_month &le; 145.0<br/>gini = 0.204<br/>samples = 842<br/>value = [745, 97]<br/>class = No>, fillcolor="#e89153"] ;
59 -> 115 ;
117 [label=<gini = 0.071<br/>samples = 431<br/>value = [415, 16]<br/>class = No>, fillcolor="#e68641"] ;
115 -> 117 ;
118 [label=<national_inv &le; 113.5<br/>gini = 0.316<br/>samples = 411<br/>value = [330, 81]<br/>class = No>, fillcolor="#eba06a"] ;
115 -> 118 ;
119 [label=<in_transit_qty &le; 6.5<br/>gini = 0.5<br/>samples = 99<br/>value = [51, 48]<br/>class = No>, fillcolor="#fdf8f3"] ;
118 -> 119 ;
121 [label=<sales_3_month &le; 134.5<br/>gini = 0.4<br/>samples = 47<br/>value = [13, 34]<br/>class = Yes>, fillcolor="#85c2ef"] ;
119 -> 121 ;
153 [label=<gini = 0.48<br/>samples = 20<br/>value = [12, 8]<br/>class = No>, fillcolor="#f6d5bd"] ;
121 -> 153 ;
154 [label=<gini = 0.071<br/>samples = 27<br/>value = [1, 26]<br/>class = Yes>, fillcolor="#41a1e6"] ;
121 -> 154 ;
122 [label=<sales_1_month &le; 88.5<br/>gini = 0.393<br/>samples = 52<br/>value = [38, 14]<br/>class = No>, fillcolor="#efaf82"] ;
119 -> 122 ;
157 [label=<gini = 0.157<br/>samples = 35<br/>value = [32, 3]<br/>class = No>, fillcolor="#e78d4c"] ;
122 -> 157 ;
158 [label=<gini = 0.457<br/>samples = 17<br/>value = [6, 11]<br/>class = Yes>, fillcolor="#a5d2f3"] ;
122 -> 158 ;
120 [label=<gini = 0.189<br/>samples = 312<br/>value = [279, 33]<br/>class = No>, fillcolor="#e89050"] ;
118 -> 120 ;
116 [label=<in_transit_qty &le; 0.5<br/>gini = 0.059<br/>samples = 3967<br/>value = [3846, 121]<br/>class = No>, fillcolor="#e6853f"] ;
59 -> 116 ;
183 [label=<sales_1_month &le; 52.5<br/>gini = 0.152<br/>samples = 859<br/>value = [788, 71]<br/>class = No>, fillcolor="#e78c4b"] ;
116 -> 183 ;
185 [label=<gini = 0.09<br/>samples = 675<br/>value = [643, 32]<br/>class = No>, fillcolor="#e68743"] ;
183 -> 185 ;
186 [label=<national_inv &le; 114.0<br/>gini = 0.334<br/>samples = 184<br/>value = [145, 39]<br/>class = No>, fillcolor="#eca36e"] ;
183 -> 186 ;
187 [label=<gini = 0.411<br/>samples = 38<br/>value = [11, 27]<br/>class = Yes>, fillcolor="#8ac5f0"] ;
186 -> 187 ;
188 [label=<gini = 0.151<br/>samples = 146<br/>value = [134, 12]<br/>class = No>, fillcolor="#e78c4b"] ;
186 -> 188 ;
184 [label=<gini = 0.032<br/>samples = 3108<br/>value = [3058, 50]<br/>class = No>, fillcolor="#e5833c"] ;
116 -> 184 ;
60 [label=<national_inv &le; 129.5<br/>gini = 0.365<br/>samples = 275<br/>value = [209, 66]<br/>class = No>, fillcolor="#eda978"] ;
25 -> 60 ;
71 [label=<forecast_3_month &le; 182.5<br/>gini = 0.493<br/>samples = 113<br/>value = [63, 50]<br/>class = No>, fillcolor="#fae5d6"] ;
60 -> 71 ;
73 [label=<perf_12_month_avg &le; 0.03<br/>gini = 0.177<br/>samples = 51<br/>value = [46, 5]<br/>class = No>, fillcolor="#e88f4f"] ;
71 -> 73 ;
217 [label=<gini = 0.0<br/>samples = 3<br/>value = [0, 3]<br/>class = Yes>, fillcolor="#399de5"] ;
73 -> 217 ;
218 [label=<gini = 0.08<br/>samples = 48<br/>value = [46, 2]<br/>class = No>, fillcolor="#e68642"] ;
73 -> 218 ;
74 [label=<min_bank &le; 32.5<br/>gini = 0.398<br/>samples = 62<br/>value = [17, 45]<br/>class = Yes>, fillcolor="#84c2ef"] ;
71 -> 74 ;
283 [label=<gini = 0.42<br/>samples = 10<br/>value = [7, 3]<br/>class = No>, fillcolor="#f0b78e"] ;
74 -> 283 ;
284 [label=<gini = 0.311<br/>samples = 52<br/>value = [10, 42]<br/>class = Yes>, fillcolor="#68b4eb"] ;
74 -> 284 ;
72 [label=<gini = 0.178<br/>samples = 162<br/>value = [146, 16]<br/>class = No>, fillcolor="#e88f4f"] ;
60 -> 72 ;
26 [label=<in_transit_qty &le; 74.0<br/>gini = 0.465<br/>samples = 237<br/>value = [150, 87]<br/>class = No>, fillcolor="#f4caac"] ;
10 -> 26 ;
57 [label=<forecast_3_month &le; 264.0<br/>gini = 0.491<br/>samples = 122<br/>value = [53, 69]<br/>class = Yes>, fillcolor="#d1e8f9"] ;
26 -> 57 ;
67 [label=<gini = 0.32<br/>samples = 40<br/>value = [32, 8]<br/>class = No>, fillcolor="#eca06a"] ;
57 -> 67 ;
68 [label=<national_inv &le; 452.0<br/>gini = 0.381<br/>samples = 82<br/>value = [21, 61]<br/>class = Yes>, fillcolor="#7dbfee"] ;
57 -> 68 ;
161 [label=<gini = 0.307<br/>samples = 74<br/>value = [14, 60]<br/>class = Yes>, fillcolor="#67b4eb"] ;
68 -> 161 ;
162 [label=<gini = 0.219<br/>samples = 8<br/>value = [7, 1]<br/>class = No>, fillcolor="#e99355"] ;
68 -> 162 ;
58 [label=<pieces_past_due &le; 68.5<br/>gini = 0.264<br/>samples = 115<br/>value = [97, 18]<br/>class = No>, fillcolor="#ea985e"] ;
26 -> 58 ;
163 [label=<national_inv &le; 21372.5<br/>gini = 0.164<br/>samples = 100<br/>value = [91, 9]<br/>class = No>, fillcolor="#e88d4d"] ;
58 -> 163 ;
219 [label=<gini = 0.116<br/>samples = 97<br/>value = [91, 6]<br/>class = No>, fillcolor="#e78946"] ;
163 -> 219 ;
220 [label=<gini = 0.0<br/>samples = 3<br/>value = [0, 3]<br/>class = Yes>, fillcolor="#399de5"] ;
163 -> 220 ;
164 [label=<gini = 0.48<br/>samples = 15<br/>value = [6, 9]<br/>class = Yes>, fillcolor="#bddef6"] ;
58 -> 164 ;
}
